{
	"W": [
		[
			-0.103632692355404,
			-0.131686764907819,
			1.49455629780624,
			-0.225522111967393,
			-0.699354148085508,
			-0.0434046384743834,
			-0.0731342453176858,
			0.929577964040021,
			-0.0416908103660418,
			0.0275501264206026
		],
		[
			-0.252330840862584,
			0.184440755329475,
			0.150410184485923,
			-0.0729083360376421,
			0.0552192602484765,
			0.0971726569936161,
			0.123175130095659,
			-0.0348485330907735,
			0.387589233397831,
			-0.194318107982468
		],
		[
			0.521343377725543,
			0.392174954436439,
			-0.456620456076156,
			0.282855295724005,
			0.63157812229911,
			-1.21841304556701,
			-0.365448726162647,
			0.287131197418503,
			-0.10008227997991,
			0.397667372999841
		],
		[
			0.202259608728241,
			-1.84812623257331,
			-0.442471183107565,
			0.146833119245201,
			0.961882243737153,
			1.06997366782732,
			-1.79424274131801,
			-0.458745058207668,
			0.397750860151237,
			0.335577235176917
		]
	],
	"b": [
		-0.315730956748212,
		-0.102071670444218,
		0.395997413989221,
		0.205566366878628
	]
}