{
	"W": [
		[
			0.44129392142213,
			0.920199160205183,
			1.38926178124764,
			1.38703939468571,
			0.262361660928995,
			0.106634485780489,
			-1.21011529958882,
			-0.110831557598402,
			1.35277623689397,
			-0.125701689194313
		],
		[
			0.316720301741725,
			-0.427980833845105,
			1.35331389916022,
			-0.981337241035321,
			1.91003369772488,
			-0.17802503171427,
			-1.80178460268762,
			-0.0628735450541313,
			-0.799922477283982,
			-0.033938476489406
		],
		[
			-0.189636373517715,
			-2.1917212791891,
			1.73553429490332,
			-1.23952566764926,
			-0.637513667290651,
			-0.72087229816259,
			-0.259244272691882,
			0.4053509062426,
			-0.542703186363433,
			0.413340312857888
		],
		[
			1.16153170266944,
			2.94434736665138,
			-2.2949628658957,
			-0.91432786738518,
			0.3177527037417,
			-1.66975709206154,
			1.60683843983224,
			-0.422259019736988,
			1.16599045800911,
			-1.85890602401943
		]
	],
	"b": [
		-0.746757576827804,
		0.926602182368015,
		-0.0865416842648301,
		1.00287093202576
	]
}